digraph Tree {
node [shape=box, style="filled, rounded", color="black", fontname=helvetica] ;
edge [fontname=helvetica] ;
0 [label="od280/od315_of_diluted_wines <= 2.19\nentropy = 1.569\nsamples = 142\nvalue = [45, 57, 40]", fillcolor="#39e58120"] ;
1 [label="color_intensity <= 3.825\nentropy = 0.607\nsamples = 47\nvalue = [0, 7, 40]", fillcolor="#8139e5d2"] ;
0 -> 1 [labeldistance=2.5, labelangle=45, headlabel="True"] ;
2 [label="entropy = 0.0\nsamples = 5\nvalue = [0, 5, 0]", fillcolor="#39e581ff"] ;
1 -> 2 ;
3 [label="entropy = 0.276\nsamples = 42\nvalue = [0, 2, 40]", fillcolor="#8139e5f2"] ;
1 -> 3 ;
4 [label="alcohol <= 12.785\nentropy = 0.998\nsamples = 95\nvalue = [45, 50, 0]", fillcolor="#39e58119"] ;
0 -> 4 [labeldistance=2.5, labelangle=-45, headlabel="False"] ;
5 [label="entropy = 0.0\nsamples = 44\nvalue = [0, 44, 0]", fillcolor="#39e581ff"] ;
4 -> 5 ;
6 [label="entropy = 0.523\nsamples = 51\nvalue = [45, 6, 0]", fillcolor="#e58139dd"] ;
4 -> 6 ;
}